Language model created by QuickLM on Sat Jan 23 03:00:12 EST 2016
Copyright (c) 1996-2010 Carnegie Mellon University and Alexander I. Rudnicky

The model is in standard ARPA format, designed by Doug Paul while he was at MITRE.

The code that was used to produce this language model is available in Open Source.
Please visit http://www.speech.cs.cmu.edu/tools/ for more information

The (fixed) discount mass is 0.5. The backoffs are computed using the ratio method.
This model based on a corpus of 7 sentences and 28 words

\data\
ngram 1=28
ngram 2=36
ngram 3=30

\1-grams:
-1.9542 'AN`AMTA -0.2913
-1.6532 'ĪYāKA -0.2913
-1.1091 </s> -0.3010
-1.1091 <s> -0.2553
-1.9542 AD-DīNI -0.2659
-1.9542 AHDINā -0.2962
-1.9542 AL-LADHīNA -0.2962
-1.9542 AL-MAGHđūBI -0.2913
-1.9542 AL-MUSTAQīMA -0.2659
-1.9542 AL-`ĀLAMīNA -0.2659
-1.9542 AL-ĤAMDU -0.2962
-1.9542 ALLāHI -0.2913
-1.6532 AR-RAĥMāNI -0.2913
-1.6532 AR-RAĥīMI -0.2659
-1.9542 Ađ-ĐāLLīNA -0.2659
-1.9542 Aş-ŞIRāţA -0.2962
-1.9542 BISMI -0.2962
-1.9542 GHAYRI -0.2962
-1.9542 LILLāH -0.2962
-1.9542 Lā -0.2962
-1.9542 MāLIKI -0.2962
-1.9542 NASTA`īNU -0.2659
-1.9542 NA`BUDU -0.2913
-1.9542 RABBI -0.2962
-1.6532 WA -0.2863
-1.9542 YAWMI -0.2962
-1.6532 `ALAYHIM -0.2863
-1.9542 ŞIRāţA -0.2962

\2-grams:
-0.3010 'AN`AMTA `ALAYHIM -0.1761
-0.6021 'ĪYāKA NASTA`īNU 0.0000
-0.6021 'ĪYāKA NA`BUDU 0.0000
-1.1461 <s> 'ĪYāKA -0.1761
-1.1461 <s> AHDINā 0.0000
-1.1461 <s> AL-ĤAMDU 0.0000
-1.1461 <s> AR-RAĥMāNI 0.0000
-1.1461 <s> BISMI 0.0000
-1.1461 <s> MāLIKI 0.0000
-1.1461 <s> ŞIRāţA 0.0000
-0.3010 AD-DīNI </s> -0.3010
-0.3010 AHDINā Aş-ŞIRāţA 0.0000
-0.3010 AL-LADHīNA 'AN`AMTA 0.0000
-0.3010 AL-MAGHđūBI `ALAYHIM -0.1761
-0.3010 AL-MUSTAQīMA </s> -0.3010
-0.3010 AL-`ĀLAMīNA </s> -0.3010
-0.3010 AL-ĤAMDU LILLāH 0.0000
-0.3010 ALLāHI AR-RAĥMāNI 0.0000
-0.3010 AR-RAĥMāNI AR-RAĥīMI 0.0000
-0.3010 AR-RAĥīMI </s> -0.3010
-0.3010 Ađ-ĐāLLīNA </s> -0.3010
-0.3010 Aş-ŞIRāţA AL-MUSTAQīMA 0.0000
-0.3010 BISMI ALLāHI 0.0000
-0.3010 GHAYRI AL-MAGHđūBI 0.0000
-0.3010 LILLāH RABBI 0.0000
-0.3010 Lā Ađ-ĐāLLīNA 0.0000
-0.3010 MāLIKI YAWMI 0.0000
-0.3010 NASTA`īNU </s> -0.3010
-0.3010 NA`BUDU WA -0.1761
-0.3010 RABBI AL-`ĀLAMīNA 0.0000
-0.6021 WA 'ĪYāKA -0.1761
-0.6021 WA Lā 0.0000
-0.3010 YAWMI AD-DīNI 0.0000
-0.6021 `ALAYHIM GHAYRI 0.0000
-0.6021 `ALAYHIM WA -0.1761
-0.3010 ŞIRāţA AL-LADHīNA 0.0000

\3-grams:
-0.3010 'AN`AMTA `ALAYHIM GHAYRI
-0.3010 'ĪYāKA NASTA`īNU </s>
-0.3010 'ĪYāKA NA`BUDU WA
-0.3010 <s> 'ĪYāKA NA`BUDU
-0.3010 <s> AHDINā Aş-ŞIRāţA
-0.3010 <s> AL-ĤAMDU LILLāH
-0.3010 <s> AR-RAĥMāNI AR-RAĥīMI
-0.3010 <s> BISMI ALLāHI
-0.3010 <s> MāLIKI YAWMI
-0.3010 <s> ŞIRāţA AL-LADHīNA
-0.3010 AHDINā Aş-ŞIRāţA AL-MUSTAQīMA
-0.3010 AL-LADHīNA 'AN`AMTA `ALAYHIM
-0.3010 AL-MAGHđūBI `ALAYHIM WA
-0.3010 AL-ĤAMDU LILLāH RABBI
-0.3010 ALLāHI AR-RAĥMāNI AR-RAĥīMI
-0.3010 AR-RAĥMāNI AR-RAĥīMI </s>
-0.3010 Aş-ŞIRāţA AL-MUSTAQīMA </s>
-0.3010 BISMI ALLāHI AR-RAĥMāNI
-0.3010 GHAYRI AL-MAGHđūBI `ALAYHIM
-0.3010 LILLāH RABBI AL-`ĀLAMīNA
-0.3010 Lā Ađ-ĐāLLīNA </s>
-0.3010 MāLIKI YAWMI AD-DīNI
-0.3010 NA`BUDU WA 'ĪYāKA
-0.3010 RABBI AL-`ĀLAMīNA </s>
-0.3010 WA 'ĪYāKA NASTA`īNU
-0.3010 WA Lā Ađ-ĐāLLīNA
-0.3010 YAWMI AD-DīNI </s>
-0.3010 `ALAYHIM GHAYRI AL-MAGHđūBI
-0.3010 `ALAYHIM WA Lā
-0.3010 ŞIRāţA AL-LADHīNA 'AN`AMTA

\end\
